<?xml version="1.0"?>
<opencv_storage>
<cascade>
  <stageType>BOOST</stageType>
  <featureType>HAAR</featureType>
  <height>50</height>
  <width>50</width>
  <stageParams>
    <boostType>GAB</boostType>
    <minHitRate>9.9500000476837158e-01</minHitRate>
    <maxFalseAlarm>5.0000000000000000e-01</maxFalseAlarm>
    <weightTrimRate>9.4999999999999996e-01</weightTrimRate>
    <maxDepth>1</maxDepth>
    <maxWeakCount>100</maxWeakCount></stageParams>
  <featureParams>
    <maxCatCount>0</maxCatCount>
    <featSize>1</featSize>
    <mode>BASIC</mode></featureParams>
  <stageNum>20</stageNum>
  <stages>
    <!-- stage 0 -->
    <_>
      <maxWeakCount>4</maxWeakCount>
      <stageThreshold>-1.0302006006240845e+00</stageThreshold>
      <weakClassifiers>
        <_>
          <internalNodes>
            0 -1 40 -3.7124089896678925e-02</internalNodes>
          <leafValues>
            3.7106919288635254e-01 -8.2456141710281372e-01</leafValues></_>
        <_>
          <internalNodes>
            0 -1 48 -8.8874099310487509e-04</internalNodes>
          <leafValues>
            5.8253329992294312e-01 -5.6796318292617798e-01</leafValues></_>
        <_>
          <internalNodes>
            0 -1 95 -4.5378431677818298e-03</internalNodes>
          <leafValues>
            6.8333548307418823e-01 -4.8102816939353943e-01</leafValues></_>
        <_>
          <internalNodes>
            0 -1 89 2.3150085471570492e-03</internalNodes>
          <leafValues>
            -3.0714437365531921e-01 8.8656306266784668e-01</leafValues></_></weakClassifiers></_>
    <!-- stage 1 -->
    <_>
      <maxWeakCount>6</maxWeakCount>
      <stageThreshold>-1.0535624027252197e+00</stageThreshold>
      <weakClassifiers>
        <_>
          <internalNodes>
            0 -1 87 2.3065852001309395e-02</internalNodes>
          <leafValues>
            -5.9119498729705811e-01 8.5507243871688843e-01</leafValues></_>
        <_>
          <internalNodes>
            0 -1 91 3.1028615194372833e-04</internalNodes>
          <leafValues>
            -4.3267467617988586e-01 5.3668916225433350e-01</leafValues></_>
        <_>
          <internalNodes>
            0 -1 1 -1.1455522850155830e-02</internalNodes>
          <leafValues>
            3.0752262473106384e-01 -8.0489188432693481e-01</leafValues></_>
        <_>
          <internalNodes>
            0 -1 16 -1.2101359665393829e-02</internalNodes>
          <leafValues>
            6.4605826139450073e-01 -4.1634854674339294e-01</leafValues></_>
        <_>
          <internalNodes>
            0 -1 23 -3.4910198301076889e-03</internalNodes>
          <leafValues>
            7.2257447242736816e-01 -3.1747540831565857e-01</leafValues></_>
        <_>
          <internalNodes>
            0 -1 146 2.2649579477729276e-05</internalNodes>
          <leafValues>
            3.9660856127738953e-01 -7.3632419109344482e-01</leafValues></_></weakClassifiers></_>
    <!-- stage 2 -->
    <_>
      <maxWeakCount>4</maxWeakCount>
      <stageThreshold>-8.9044260978698730e-01</stageThreshold>
      <weakClassifiers>
        <_>
          <internalNodes>
            0 -1 55 -7.8137440141290426e-04</internalNodes>
          <leafValues>
            5.3043478727340698e-01 -6.9852942228317261e-01</leafValues></_>
        <_>
          <internalNodes>
            0 -1 14 7.8041749075055122e-03</internalNodes>
          <leafValues>
            -5.0674688816070557e-01 7.1364754438400269e-01</leafValues></_>
        <_>
          <internalNodes>
            0 -1 41 8.1102637341246009e-04</internalNodes>
          <leafValues>
            -3.9775592088699341e-01 6.3987118005752563e-01</leafValues></_>
        <_>
          <internalNodes>
            0 -1 77 3.9578802534379065e-04</internalNodes>
          <leafValues>
            -3.2503747940063477e-01 8.3193504810333252e-01</leafValues></_></weakClassifiers></_>
    <!-- stage 3 -->
    <_>
      <maxWeakCount>6</maxWeakCount>
      <stageThreshold>-6.1524510383605957e-01</stageThreshold>
      <weakClassifiers>
        <_>
          <internalNodes>
            0 -1 25 3.4970894455909729e-02</internalNodes>
          <leafValues>
            -5.5624997615814209e-01 7.3134326934814453e-01</leafValues></_>
        <_>
          <internalNodes>
            0 -1 105 -5.8062104508280754e-03</internalNodes>
          <leafValues>
            6.4872896671295166e-01 -3.6524274945259094e-01</leafValues></_>
        <_>
          <internalNodes>
            0 -1 28 -1.8059512367472053e-03</internalNodes>
          <leafValues>
            5.2905035018920898e-01 -4.3313118815422058e-01</leafValues></_>
        <_>
          <internalNodes>
            0 -1 69 -5.0325747579336166e-03</internalNodes>
          <leafValues>
            7.5372123718261719e-01 -3.3090332150459290e-01</leafValues></_>
        <_>
          <internalNodes>
            0 -1 115 -2.9421023555187276e-06</internalNodes>
          <leafValues>
            3.9829215407371521e-01 -5.9146940708160400e-01</leafValues></_>
        <_>
          <internalNodes>
            0 -1 138 9.9072069860994816e-04</internalNodes>
          <leafValues>
            -2.9019153118133545e-01 8.1954437494277954e-01</leafValues></_></weakClassifiers></_>
    <!-- stage 4 -->
    <_>
      <maxWeakCount>4</maxWeakCount>
      <stageThreshold>-9.0585517883300781e-01</stageThreshold>
      <weakClassifiers>
        <_>
          <internalNodes>
            0 -1 49 2.7671312913298607e-02</internalNodes>
          <leafValues>
            -6.3698631525039673e-01 6.0000002384185791e-01</leafValues></_>
        <_>
          <internalNodes>
            0 -1 30 1.2300767411943525e-04</internalNodes>
          <leafValues>
            1.4897999167442322e-01 -9.2649149894714355e-01</leafValues></_>
        <_>
          <internalNodes>
            0 -1 43 -1.7419605865143239e-04</internalNodes>
          <leafValues>
            3.6929014325141907e-01 -4.8664844036102295e-01</leafValues></_>
        <_>
          <internalNodes>
            0 -1 139 -1.1233228724449873e-04</internalNodes>
          <leafValues>
            -7.8713899850845337e-01 2.7380040287971497e-01</leafValues></_></weakClassifiers></_>
    <!-- stage 5 -->
    <_>
      <maxWeakCount>7</maxWeakCount>
      <stageThreshold>-8.5349047183990479e-01</stageThreshold>
      <weakClassifiers>
        <_>
          <internalNodes>
            0 -1 79 1.4320200309157372e-02</internalNodes>
          <leafValues>
            -5.3703701496124268e-01 7.1428573131561279e-01</leafValues></_>
        <_>
          <internalNodes>
            0 -1 51 5.5037024139892310e-05</internalNodes>
          <leafValues>
            2.2933584451675415e-01 -6.7282712459564209e-01</leafValues></_>
        <_>
          <internalNodes>
            0 -1 84 -6.4770027529448271e-04</internalNodes>
          <leafValues>
            5.7071781158447266e-01 -3.2044067978858948e-01</leafValues></_>
        <_>
          <internalNodes>
            0 -1 117 -9.6857707831077278e-05</internalNodes>
          <leafValues>
            -6.6629630327224731e-01 3.0342331528663635e-01</leafValues></_>
        <_>
          <internalNodes>
            0 -1 111 -2.5006834221130703e-06</internalNodes>
          <leafValues>
            3.4379449486732483e-01 -5.5273765325546265e-01</leafValues></_>
        <_>
          <internalNodes>
            0 -1 5 -6.4678592607378960e-03</internalNodes>
          <leafValues>
            5.8701139688491821e-01 -3.2769617438316345e-01</leafValues></_>
        <_>
          <internalNodes>
            0 -1 46 2.1257740445435047e-03</internalNodes>
          <leafValues>
            -4.4914248585700989e-01 4.3022304773330688e-01</leafValues></_></weakClassifiers></_>
    <!-- stage 6 -->
    <_>
      <maxWeakCount>6</maxWeakCount>
      <stageThreshold>-9.0151613950729370e-01</stageThreshold>
      <weakClassifiers>
        <_>
          <internalNodes>
            0 -1 47 2.1769326925277710e-01</internalNodes>
          <leafValues>
            -4.8538011312484741e-01 8.2222223281860352e-01</leafValues></_>
        <_>
          <internalNodes>
            0 -1 108 -7.3437171522527933e-05</internalNodes>
          <leafValues>
            -7.3201000690460205e-01 2.2470316290855408e-01</leafValues></_>
        <_>
          <internalNodes>
            0 -1 71 5.8853875088971108e-05</internalNodes>
          <leafValues>
            1.4071005582809448e-01 -8.5103285312652588e-01</leafValues></_>
        <_>
          <internalNodes>
            0 -1 118 -1.6388818039558828e-04</internalNodes>
          <leafValues>
            -7.2202765941619873e-01 1.9963999092578888e-01</leafValues></_>
        <_>
          <internalNodes>
            0 -1 18 2.4666945682838559e-04</internalNodes>
          <leafValues>
            -3.7771162390708923e-01 4.2740365862846375e-01</leafValues></_>
        <_>
          <internalNodes>
            0 -1 123 -1.1343951337039471e-03</internalNodes>
          <leafValues>
            4.0283924341201782e-01 -4.1684997081756592e-01</leafValues></_></weakClassifiers></_>
    <!-- stage 7 -->
    <_>
      <maxWeakCount>8</maxWeakCount>
      <stageThreshold>-9.5905929803848267e-01</stageThreshold>
      <weakClassifiers>
        <_>
          <internalNodes>
            0 -1 65 3.1568147242069244e-02</internalNodes>
          <leafValues>
            -4.6974062919616699e-01 8.5000002384185791e-01</leafValues></_>
        <_>
          <internalNodes>
            0 -1 132 -1.8493432435207069e-04</internalNodes>
          <leafValues>
            2.8654390573501587e-01 -5.0978416204452515e-01</leafValues></_>
        <_>
          <internalNodes>
            0 -1 76 -8.3082984201610088e-04</internalNodes>
          <leafValues>
            6.4407420158386230e-01 -2.3233243823051453e-01</leafValues></_>
        <_>
          <internalNodes>
            0 -1 112 -1.7272913828492165e-04</internalNodes>
          <leafValues>
            -7.6234304904937744e-01 2.3894225060939789e-01</leafValues></_>
        <_>
          <internalNodes>
            0 -1 52 1.1347668245434761e-02</internalNodes>
          <leafValues>
            -2.2922983765602112e-01 7.0033216476440430e-01</leafValues></_>
        <_>
          <internalNodes>
            0 -1 88 -8.7001353676896542e-05</internalNodes>
          <leafValues>
            -7.6597833633422852e-01 2.4990594387054443e-01</leafValues></_>
        <_>
          <internalNodes>
            0 -1 10 1.1176686733961105e-02</internalNodes>
          <leafValues>
            -4.5060151815414429e-01 4.1527029871940613e-01</leafValues></_>
        <_>
          <internalNodes>
            0 -1 140 2.7867951430380344e-03</internalNodes>
          <leafValues>
            -2.8261300921440125e-01 6.8649291992187500e-01</leafValues></_></weakClassifiers></_>
    <!-- stage 8 -->
    <_>
      <maxWeakCount>9</maxWeakCount>
      <stageThreshold>-1.1390142440795898e+00</stageThreshold>
      <weakClassifiers>
        <_>
          <internalNodes>
            0 -1 0 1.4325013756752014e-01</internalNodes>
          <leafValues>
            -5.3054660558700562e-01 4.7368422150611877e-01</leafValues></_>
        <_>
          <internalNodes>
            0 -1 45 -6.0190574731677771e-04</internalNodes>
          <leafValues>
            -5.4805868864059448e-01 2.2380003333091736e-01</leafValues></_>
        <_>
          <internalNodes>
            0 -1 50 3.3566815545782447e-04</internalNodes>
          <leafValues>
            1.6145347058773041e-01 -7.8045088052749634e-01</leafValues></_>
        <_>
          <internalNodes>
            0 -1 35 -1.8702326342463493e-03</internalNodes>
          <leafValues>
            5.7197648286819458e-01 -2.8155130147933960e-01</leafValues></_>
        <_>
          <internalNodes>
            0 -1 8 6.5005500800907612e-04</internalNodes>
          <leafValues>
            2.2129499912261963e-01 -6.8687891960144043e-01</leafValues></_>
        <_>
          <internalNodes>
            0 -1 58 -4.5029137982055545e-04</internalNodes>
          <leafValues>
            4.9531927704811096e-01 -3.4422618150711060e-01</leafValues></_>
        <_>
          <internalNodes>
            0 -1 34 -8.2540273433551192e-04</internalNodes>
          <leafValues>
            3.9073157310485840e-01 -3.9590117335319519e-01</leafValues></_>
        <_>
          <internalNodes>
            0 -1 109 -6.6898151999339461e-05</internalNodes>
          <leafValues>
            3.5448831319808960e-01 -4.4444751739501953e-01</leafValues></_>
        <_>
          <internalNodes>
            0 -1 86 -5.2406778559088707e-04</internalNodes>
          <leafValues>
            -7.0335417985916138e-01 2.5111010670661926e-01</leafValues></_></weakClassifiers></_>
    <!-- stage 9 -->
    <_>
      <maxWeakCount>9</maxWeakCount>
      <stageThreshold>-9.1405403614044189e-01</stageThreshold>
      <weakClassifiers>
        <_>
          <internalNodes>
            0 -1 90 -3.9783660322427750e-03</internalNodes>
          <leafValues>
            4.2857143282890320e-01 -5.0157725811004639e-01</leafValues></_>
        <_>
          <internalNodes>
            0 -1 124 2.8415099677658873e-06</internalNodes>
          <leafValues>
            -3.8978254795074463e-01 3.7593847513198853e-01</leafValues></_>
        <_>
          <internalNodes>
            0 -1 29 2.2487597016151994e-04</internalNodes>
          <leafValues>
            -3.4630605578422546e-01 3.8149872422218323e-01</leafValues></_>
        <_>
          <internalNodes>
            0 -1 100 -1.5833571087568998e-03</internalNodes>
          <leafValues>
            7.3513674736022949e-01 -1.8076007068157196e-01</leafValues></_>
        <_>
          <internalNodes>
            0 -1 144 -1.0375775163993239e-03</internalNodes>
          <leafValues>
            4.8750633001327515e-01 -2.7263200283050537e-01</leafValues></_>
        <_>
          <internalNodes>
            0 -1 141 1.9934245210606605e-04</internalNodes>
          <leafValues>
            -2.3621915280818939e-01 5.6360310316085815e-01</leafValues></_>
        <_>
          <internalNodes>
            0 -1 27 3.9367121644318104e-04</internalNodes>
          <leafValues>
            3.2213184237480164e-01 -5.6847828626632690e-01</leafValues></_>
        <_>
          <internalNodes>
            0 -1 102 1.0534700704738498e-03</internalNodes>
          <leafValues>
            -2.1966364979743958e-01 7.9414993524551392e-01</leafValues></_>
        <_>
          <internalNodes>
            0 -1 113 -5.8141609770245850e-05</internalNodes>
          <leafValues>
            -6.4920568466186523e-01 2.5373655557632446e-01</leafValues></_></weakClassifiers></_>
    <!-- stage 10 -->
    <_>
      <maxWeakCount>7</maxWeakCount>
      <stageThreshold>-7.5900971889495850e-01</stageThreshold>
      <weakClassifiers>
        <_>
          <internalNodes>
            0 -1 68 4.7223977744579315e-02</internalNodes>
          <leafValues>
            -4.9841269850730896e-01 3.8888889551162720e-01</leafValues></_>
        <_>
          <internalNodes>
            0 -1 73 5.0177588127553463e-04</internalNodes>
          <leafValues>
            1.6272823512554169e-01 -8.1651782989501953e-01</leafValues></_>
        <_>
          <internalNodes>
            0 -1 22 1.3796864368487149e-04</internalNodes>
          <leafValues>
            -3.6853551864624023e-01 3.9073646068572998e-01</leafValues></_>
        <_>
          <internalNodes>
            0 -1 93 -5.5885502661112696e-05</internalNodes>
          <leafValues>
            6.1202102899551392e-01 -2.2356486320495605e-01</leafValues></_>
        <_>
          <internalNodes>
            0 -1 12 6.3136434182524681e-03</internalNodes>
          <leafValues>
            -2.2980757057666779e-01 7.1938604116439819e-01</leafValues></_>
        <_>
          <internalNodes>
            0 -1 98 2.9693974647670984e-03</internalNodes>
          <leafValues>
            2.0389764010906219e-01 -8.5329407453536987e-01</leafValues></_>
        <_>
          <internalNodes>
            0 -1 99 -1.2834647204726934e-03</internalNodes>
          <leafValues>
            3.4664350748062134e-01 -4.2092677950859070e-01</leafValues></_></weakClassifiers></_>
    <!-- stage 11 -->
    <_>
      <maxWeakCount>8</maxWeakCount>
      <stageThreshold>-7.8848785161972046e-01</stageThreshold>
      <weakClassifiers>
        <_>
          <internalNodes>
            0 -1 80 -2.1322513930499554e-03</internalNodes>
          <leafValues>
            8.1818181276321411e-01 -4.4067797064781189e-01</leafValues></_>
        <_>
          <internalNodes>
            0 -1 74 -2.5386994238942862e-03</internalNodes>
          <leafValues>
            4.2191874980926514e-01 -3.2355511188507080e-01</leafValues></_>
        <_>
          <internalNodes>
            0 -1 3 -1.4608440687879920e-03</internalNodes>
          <leafValues>
            4.6367448568344116e-01 -2.6790365576744080e-01</leafValues></_>
        <_>
          <internalNodes>
            0 -1 39 -1.5896072727628052e-04</internalNodes>
          <leafValues>
            -6.6754812002182007e-01 2.0348884165287018e-01</leafValues></_>
        <_>
          <internalNodes>
            0 -1 21 -6.6474135965108871e-03</internalNodes>
          <leafValues>
            4.9716252088546753e-01 -2.8966820240020752e-01</leafValues></_>
        <_>
          <internalNodes>
            0 -1 42 1.4829137362539768e-03</internalNodes>
          <leafValues>
            -2.8327333927154541e-01 5.5422282218933105e-01</leafValues></_>
        <_>
          <internalNodes>
            0 -1 133 3.0316489282995462e-03</internalNodes>
          <leafValues>
            -3.8894185423851013e-01 3.8247832655906677e-01</leafValues></_>
        <_>
          <internalNodes>
            0 -1 125 -2.3571374185848981e-05</internalNodes>
          <leafValues>
            3.4077581763267517e-01 -4.3810790777206421e-01</leafValues></_></weakClassifiers></_>
    <!-- stage 12 -->
    <_>
      <maxWeakCount>8</maxWeakCount>
      <stageThreshold>-1.0626499652862549e+00</stageThreshold>
      <weakClassifiers>
        <_>
          <internalNodes>
            0 -1 2 8.2650966942310333e-03</internalNodes>
          <leafValues>
            -5.5636364221572876e-01 2.1428571641445160e-01</leafValues></_>
        <_>
          <internalNodes>
            0 -1 94 1.3685964222531766e-04</internalNodes>
          <leafValues>
            -3.1195160746574402e-01 4.5370763540267944e-01</leafValues></_>
        <_>
          <internalNodes>
            0 -1 11 -2.0825210958719254e-04</internalNodes>
          <leafValues>
            -7.3398607969284058e-01 1.9791372120380402e-01</leafValues></_>
        <_>
          <internalNodes>
            0 -1 104 1.2775120558217168e-03</internalNodes>
          <leafValues>
            1.5845979750156403e-01 -8.9128881692886353e-01</leafValues></_>
        <_>
          <internalNodes>
            0 -1 137 -1.0094325989484787e-03</internalNodes>
          <leafValues>
            5.6880605220794678e-01 -2.7007758617401123e-01</leafValues></_>
        <_>
          <internalNodes>
            0 -1 72 -9.6504588145762682e-04</internalNodes>
          <leafValues>
            -8.3859330415725708e-01 1.9571726024150848e-01</leafValues></_>
        <_>
          <internalNodes>
            0 -1 106 -9.1605295892804861e-05</internalNodes>
          <leafValues>
            4.0002551674842834e-01 -3.6266851425170898e-01</leafValues></_>
        <_>
          <internalNodes>
            0 -1 9 -3.0572125979233533e-05</internalNodes>
          <leafValues>
            -5.2266126871109009e-01 2.5674405694007874e-01</leafValues></_></weakClassifiers></_>
    <!-- stage 13 -->
    <_>
      <maxWeakCount>9</maxWeakCount>
      <stageThreshold>-7.0442909002304077e-01</stageThreshold>
      <weakClassifiers>
        <_>
          <internalNodes>
            0 -1 70 -6.5168266883119941e-04</internalNodes>
          <leafValues>
            4.1916169226169586e-02 -6.1818182468414307e-01</leafValues></_>
        <_>
          <internalNodes>
            0 -1 92 9.3831229605711997e-05</internalNodes>
          <leafValues>
            -2.7848637104034424e-01 4.9606424570083618e-01</leafValues></_>
        <_>
          <internalNodes>
            0 -1 64 2.7485247119329870e-04</internalNodes>
          <leafValues>
            -2.4185869097709656e-01 4.3740350008010864e-01</leafValues></_>
        <_>
          <internalNodes>
            0 -1 63 7.8920667874626815e-05</internalNodes>
          <leafValues>
            -3.1164672970771790e-01 3.8468742370605469e-01</leafValues></_>
        <_>
          <internalNodes>
            0 -1 126 -3.8507196586579084e-03</internalNodes>
          <leafValues>
            5.5410176515579224e-01 -2.2319498658180237e-01</leafValues></_>
        <_>
          <internalNodes>
            0 -1 145 -4.8556212277617306e-05</internalNodes>
          <leafValues>
            -5.5206429958343506e-01 2.6932442188262939e-01</leafValues></_>
        <_>
          <internalNodes>
            0 -1 131 1.1591607471928000e-04</internalNodes>
          <leafValues>
            2.4215659499168396e-01 -6.3577389717102051e-01</leafValues></_>
        <_>
          <internalNodes>
            0 -1 103 -2.8860071324743330e-04</internalNodes>
          <leafValues>
            3.3617892861366272e-01 -4.2613995075225830e-01</leafValues></_>
        <_>
          <internalNodes>
            0 -1 31 2.3145006707636639e-05</internalNodes>
          <leafValues>
            -4.1151729226112366e-01 3.8593256473541260e-01</leafValues></_></weakClassifiers></_>
    <!-- stage 14 -->
    <_>
      <maxWeakCount>8</maxWeakCount>
      <stageThreshold>-6.2256878614425659e-01</stageThreshold>
      <weakClassifiers>
        <_>
          <internalNodes>
            0 -1 20 5.0857765600085258e-03</internalNodes>
          <leafValues>
            -5.4372626543045044e-01 1.1290322244167328e-01</leafValues></_>
        <_>
          <internalNodes>
            0 -1 24 1.4828982784820255e-05</internalNodes>
          <leafValues>
            1.3551120460033417e-01 -7.2786128520965576e-01</leafValues></_>
        <_>
          <internalNodes>
            0 -1 135 1.6885716468095779e-03</internalNodes>
          <leafValues>
            -1.9268923997879028e-01 7.5400125980377197e-01</leafValues></_>
        <_>
          <internalNodes>
            0 -1 101 -3.8300812593661249e-04</internalNodes>
          <leafValues>
            -6.7087405920028687e-01 2.6449802517890930e-01</leafValues></_>
        <_>
          <internalNodes>
            0 -1 26 -1.7449657898396254e-03</internalNodes>
          <leafValues>
            3.1979414820671082e-01 -4.2407000064849854e-01</leafValues></_>
        <_>
          <internalNodes>
            0 -1 6 -1.8736843776423484e-04</internalNodes>
          <leafValues>
            -8.8335913419723511e-01 1.9476598501205444e-01</leafValues></_>
        <_>
          <internalNodes>
            0 -1 97 1.0228093713521957e-02</internalNodes>
          <leafValues>
            -3.5035756230354309e-01 4.2872738838195801e-01</leafValues></_>
        <_>
          <internalNodes>
            0 -1 121 3.2739951275289059e-03</internalNodes>
          <leafValues>
            -2.0684327185153961e-01 6.7019563913345337e-01</leafValues></_></weakClassifiers></_>
    <!-- stage 15 -->
    <_>
      <maxWeakCount>9</maxWeakCount>
      <stageThreshold>-1.0988615751266479e+00</stageThreshold>
      <weakClassifiers>
        <_>
          <internalNodes>
            0 -1 60 2.8376735746860504e-02</internalNodes>
          <leafValues>
            -4.9358972907066345e-01 3.3333334326744080e-01</leafValues></_>
        <_>
          <internalNodes>
            0 -1 120 -3.2670232030795887e-05</internalNodes>
          <leafValues>
            2.9572820663452148e-01 -4.0440189838409424e-01</leafValues></_>
        <_>
          <internalNodes>
            0 -1 4 8.7999005336314440e-04</internalNodes>
          <leafValues>
            -2.1911546587944031e-01 6.1438280344009399e-01</leafValues></_>
        <_>
          <internalNodes>
            0 -1 119 -5.7318964973092079e-03</internalNodes>
          <leafValues>
            5.0573116540908813e-01 -2.3359778523445129e-01</leafValues></_>
        <_>
          <internalNodes>
            0 -1 142 -2.9182885773479939e-03</internalNodes>
          <leafValues>
            4.9989482760429382e-01 -2.8075975179672241e-01</leafValues></_>
        <_>
          <internalNodes>
            0 -1 82 4.3380574788898230e-04</internalNodes>
          <leafValues>
            -2.1073186397552490e-01 5.7256311178207397e-01</leafValues></_>
        <_>
          <internalNodes>
            0 -1 66 -5.9139244258403778e-03</internalNodes>
          <leafValues>
            6.6702139377593994e-01 -2.0288223028182983e-01</leafValues></_>
        <_>
          <internalNodes>
            0 -1 37 3.8533158658538014e-05</internalNodes>
          <leafValues>
            -2.9533481597900391e-01 5.0931233167648315e-01</leafValues></_>
        <_>
          <internalNodes>
            0 -1 53 -4.7046522377058864e-04</internalNodes>
          <leafValues>
            5.4142189025878906e-01 -2.8375068306922913e-01</leafValues></_></weakClassifiers></_>
    <!-- stage 16 -->
    <_>
      <maxWeakCount>7</maxWeakCount>
      <stageThreshold>-7.0422995090484619e-01</stageThreshold>
      <weakClassifiers>
        <_>
          <internalNodes>
            0 -1 136 -1.1512262062751688e-05</internalNodes>
          <leafValues>
            -1.9072102792336615e-18 -6.1137437820434570e-01</leafValues></_>
        <_>
          <internalNodes>
            0 -1 15 -1.2252429500222206e-02</internalNodes>
          <leafValues>
            -5.6291478872299194e-01 1.8829132616519928e-01</leafValues></_>
        <_>
          <internalNodes>
            0 -1 36 3.2726605422794819e-03</internalNodes>
          <leafValues>
            2.1610727906227112e-01 -5.2782946825027466e-01</leafValues></_>
        <_>
          <internalNodes>
            0 -1 61 2.7778269723057747e-03</internalNodes>
          <leafValues>
            2.2435939311981201e-01 -6.8546682596206665e-01</leafValues></_>
        <_>
          <internalNodes>
            0 -1 32 4.9692241009324789e-04</internalNodes>
          <leafValues>
            -3.1516185402870178e-01 4.2337617278099060e-01</leafValues></_>
        <_>
          <internalNodes>
            0 -1 54 3.8078764919191599e-03</internalNodes>
          <leafValues>
            2.3595017194747925e-01 -5.5511116981506348e-01</leafValues></_>
        <_>
          <internalNodes>
            0 -1 38 -1.1867280118167400e-03</internalNodes>
          <leafValues>
            4.9491947889328003e-01 -2.9142674803733826e-01</leafValues></_></weakClassifiers></_>
    <!-- stage 17 -->
    <_>
      <maxWeakCount>10</maxWeakCount>
      <stageThreshold>-7.5633084774017334e-01</stageThreshold>
      <weakClassifiers>
        <_>
          <internalNodes>
            0 -1 83 1.3756853295490146e-03</internalNodes>
          <leafValues>
            -4.4023323059082031e-01 5.0000000000000000e-01</leafValues></_>
        <_>
          <internalNodes>
            0 -1 122 6.0093756474088877e-05</internalNodes>
          <leafValues>
            1.6072444617748260e-01 -5.9599608182907104e-01</leafValues></_>
        <_>
          <internalNodes>
            0 -1 81 3.3903017174452543e-04</internalNodes>
          <leafValues>
            1.4238670468330383e-01 -6.9578737020492554e-01</leafValues></_>
        <_>
          <internalNodes>
            0 -1 147 -1.8006069585680962e-03</internalNodes>
          <leafValues>
            -5.2462357282638550e-01 2.3603077232837677e-01</leafValues></_>
        <_>
          <internalNodes>
            0 -1 57 8.0152461305260658e-03</internalNodes>
          <leafValues>
            1.4500774443149567e-01 -8.2187873125076294e-01</leafValues></_>
        <_>
          <internalNodes>
            0 -1 129 -4.6142768114805222e-03</internalNodes>
          <leafValues>
            3.7224426865577698e-01 -3.4435787796974182e-01</leafValues></_>
        <_>
          <internalNodes>
            0 -1 85 -5.9208496168139391e-06</internalNodes>
          <leafValues>
            3.9352726936340332e-01 -3.1325474381446838e-01</leafValues></_>
        <_>
          <internalNodes>
            0 -1 62 -6.5042579080909491e-04</internalNodes>
          <leafValues>
            4.9337249994277954e-01 -2.7771222591400146e-01</leafValues></_>
        <_>
          <internalNodes>
            0 -1 127 -2.1007332543376833e-04</internalNodes>
          <leafValues>
            -7.7605885267257690e-01 1.6920311748981476e-01</leafValues></_>
        <_>
          <internalNodes>
            0 -1 13 -1.2562240473926067e-02</internalNodes>
          <leafValues>
            8.5958361625671387e-01 -1.8025328218936920e-01</leafValues></_></weakClassifiers></_>
    <!-- stage 18 -->
    <_>
      <maxWeakCount>11</maxWeakCount>
      <stageThreshold>-9.9380373954772949e-01</stageThreshold>
      <weakClassifiers>
        <_>
          <internalNodes>
            0 -1 17 5.3777138236910105e-04</internalNodes>
          <leafValues>
            -9.6491225063800812e-02 -6.7295598983764648e-01</leafValues></_>
        <_>
          <internalNodes>
            0 -1 143 -5.8235041797161102e-03</internalNodes>
          <leafValues>
            5.0271350145339966e-01 -2.4022963643074036e-01</leafValues></_>
        <_>
          <internalNodes>
            0 -1 128 -3.2985261641442776e-03</internalNodes>
          <leafValues>
            3.8902348279953003e-01 -2.8166550397872925e-01</leafValues></_>
        <_>
          <internalNodes>
            0 -1 114 -2.0593454246409237e-04</internalNodes>
          <leafValues>
            -6.8697690963745117e-01 1.6800627112388611e-01</leafValues></_>
        <_>
          <internalNodes>
            0 -1 75 -5.1086628809571266e-03</internalNodes>
          <leafValues>
            -7.9839527606964111e-01 1.6370542347431183e-01</leafValues></_>
        <_>
          <internalNodes>
            0 -1 33 4.4180842814967036e-04</internalNodes>
          <leafValues>
            -2.9232770204544067e-01 4.8420527577400208e-01</leafValues></_>
        <_>
          <internalNodes>
            0 -1 96 4.7499669017270207e-04</internalNodes>
          <leafValues>
            -2.6930600404739380e-01 4.6693304181098938e-01</leafValues></_>
        <_>
          <internalNodes>
            0 -1 130 -2.1312580793164670e-04</internalNodes>
          <leafValues>
            4.4174450635910034e-01 -2.9479423165321350e-01</leafValues></_>
        <_>
          <internalNodes>
            0 -1 78 -1.7072778427973390e-04</internalNodes>
          <leafValues>
            -6.6436648368835449e-01 2.0522587001323700e-01</leafValues></_>
        <_>
          <internalNodes>
            0 -1 56 -6.6336831077933311e-03</internalNodes>
          <leafValues>
            5.4947000741958618e-01 -2.6479548215866089e-01</leafValues></_>
        <_>
          <internalNodes>
            0 -1 19 -2.0155210047960281e-02</internalNodes>
          <leafValues>
            6.0647207498550415e-01 -2.8774946928024292e-01</leafValues></_></weakClassifiers></_>
    <!-- stage 19 -->
    <_>
      <maxWeakCount>8</maxWeakCount>
      <stageThreshold>-9.5028567314147949e-01</stageThreshold>
      <weakClassifiers>
        <_>
          <internalNodes>
            0 -1 7 -2.6865418476518244e-05</internalNodes>
          <leafValues>
            -6.4444446563720703e-01 -6.2801934778690338e-02</leafValues></_>
        <_>
          <internalNodes>
            0 -1 107 2.8071354608982801e-04</internalNodes>
          <leafValues>
            -2.9962205886840820e-01 3.8487097620964050e-01</leafValues></_>
        <_>
          <internalNodes>
            0 -1 116 1.5194981824606657e-04</internalNodes>
          <leafValues>
            1.2093335390090942e-01 -8.8788092136383057e-01</leafValues></_>
        <_>
          <internalNodes>
            0 -1 44 -7.6558464206755161e-04</internalNodes>
          <leafValues>
            3.1692335009574890e-01 -3.9638617634773254e-01</leafValues></_>
        <_>
          <internalNodes>
            0 -1 134 3.4451615065336227e-03</internalNodes>
          <leafValues>
            -2.9148197174072266e-01 5.5008810758590698e-01</leafValues></_>
        <_>
          <internalNodes>
            0 -1 59 5.8108726079808548e-05</internalNodes>
          <leafValues>
            -2.9367288947105408e-01 4.1579473018646240e-01</leafValues></_>
        <_>
          <internalNodes>
            0 -1 110 2.1498944610357285e-02</internalNodes>
          <leafValues>
            -2.2064031660556793e-01 5.7564067840576172e-01</leafValues></_>
        <_>
          <internalNodes>
            0 -1 67 -1.7047994770109653e-03</internalNodes>
          <leafValues>
            6.7575079202651978e-01 -2.1992321312427521e-01</leafValues></_></weakClassifiers></_></stages>
  <features>
    <_>
      <rects>
        <_>
          0 2 48 20 -1.</_>
        <_>
          0 12 48 10 2.</_></rects>
      <tilted>0</tilted></_>
    <_>
      <rects>
        <_>
          0 10 45 28 -1.</_>
        <_>
          0 24 45 14 2.</_></rects>
      <tilted>0</tilted></_>
    <_>
      <rects>
        <_>
          0 17 12 5 -1.</_>
        <_>
          6 17 6 5 2.</_></rects>
      <tilted>0</tilted></_>
    <_>
      <rects>
        <_>
          0 18 4 22 -1.</_>
        <_>
          0 18 2 11 2.</_>
        <_>
          2 29 2 11 2.</_></rects>
      <tilted>0</tilted></_>
    <_>
      <rects>
        <_>
          0 20 2 15 -1.</_>
        <_>
          1 20 1 15 2.</_></rects>
      <tilted>0</tilted></_>
    <_>
      <rects>
        <_>
          0 22 14 16 -1.</_>
        <_>
          0 22 7 8 2.</_>
        <_>
          7 30 7 8 2.</_></rects>
      <tilted>0</tilted></_>
    <_>
      <rects>
        <_>
          0 40 2 4 -1.</_>
        <_>
          1 40 1 4 2.</_></rects>
      <tilted>0</tilted></_>
    <_>
      <rects>
        <_>
          0 41 6 4 -1.</_>
        <_>
          0 41 3 2 2.</_>
        <_>
          3 43 3 2 2.</_></rects>
      <tilted>0</tilted></_>
    <_>
      <rects>
        <_>
          0 43 6 5 -1.</_>
        <_>
          3 43 3 5 2.</_></rects>
      <tilted>0</tilted></_>
    <_>
      <rects>
        <_>
          1 0 4 3 -1.</_>
        <_>
          1 1 4 1 3.</_></rects>
      <tilted>0</tilted></_>
    <_>
      <rects>
        <_>
          1 0 15 43 -1.</_>
        <_>
          6 0 5 43 3.</_></rects>
      <tilted>0</tilted></_>
    <_>
      <rects>
        <_>
          1 1 6 4 -1.</_>
        <_>
          1 1 3 2 2.</_>
        <_>
          4 3 3 2 2.</_></rects>
      <tilted>0</tilted></_>
    <_>
      <rects>
        <_>
          1 11 6 30 -1.</_>
        <_>
          1 11 3 15 2.</_>
        <_>
          4 26 3 15 2.</_></rects>
      <tilted>0</tilted></_>
    <_>
      <rects>
        <_>
          1 12 6 22 -1.</_>
        <_>
          1 12 3 11 2.</_>
        <_>
          4 23 3 11 2.</_></rects>
      <tilted>0</tilted></_>
    <_>
      <rects>
        <_>
          1 13 8 23 -1.</_>
        <_>
          5 13 4 23 2.</_></rects>
      <tilted>0</tilted></_>
    <_>
      <rects>
        <_>
          2 1 33 9 -1.</_>
        <_>
          13 1 11 9 3.</_></rects>
      <tilted>0</tilted></_>
    <_>
      <rects>
        <_>
          2 10 14 18 -1.</_>
        <_>
          2 10 7 9 2.</_>
        <_>
          9 19 7 9 2.</_></rects>
      <tilted>0</tilted></_>
    <_>
      <rects>
        <_>
          3 3 28 6 -1.</_>
        <_>
          3 3 14 3 2.</_>
        <_>
          17 6 14 3 2.</_></rects>
      <tilted>0</tilted></_>
    <_>
      <rects>
        <_>
          3 17 2 9 -1.</_>
        <_>
          4 17 1 9 2.</_></rects>
      <tilted>0</tilted></_>
    <_>
      <rects>
        <_>
          4 9 21 16 -1.</_>
        <_>
          11 9 7 16 3.</_></rects>
      <tilted>0</tilted></_>
    <_>
      <rects>
        <_>
          4 13 6 13 -1.</_>
        <_>
          7 13 3 13 2.</_></rects>
      <tilted>0</tilted></_>
    <_>
      <rects>
        <_>
          4 13 33 7 -1.</_>
        <_>
          15 13 11 7 3.</_></rects>
      <tilted>0</tilted></_>
    <_>
      <rects>
        <_>
          4 17 2 4 -1.</_>
        <_>
          5 17 1 4 2.</_></rects>
      <tilted>0</tilted></_>
    <_>
      <rects>
        <_>
          4 23 12 12 -1.</_>
        <_>
          4 23 6 6 2.</_>
        <_>
          10 29 6 6 2.</_></rects>
      <tilted>0</tilted></_>
    <_>
      <rects>
        <_>
          5 3 2 2 -1.</_>
        <_>
          5 3 1 1 2.</_>
        <_>
          6 4 1 1 2.</_></rects>
      <tilted>0</tilted></_>
    <_>
      <rects>
        <_>
          5 13 42 3 -1.</_>
        <_>
          19 13 14 3 3.</_></rects>
      <tilted>0</tilted></_>
    <_>
      <rects>
        <_>
          5 25 3 18 -1.</_>
        <_>
          5 34 3 9 2.</_></rects>
      <tilted>0</tilted></_>
    <_>
      <rects>
        <_>
          6 3 18 2 -1.</_>
        <_>
          12 3 6 2 3.</_></rects>
      <tilted>0</tilted></_>
    <_>
      <rects>
        <_>
          6 11 6 18 -1.</_>
        <_>
          6 11 3 9 2.</_>
        <_>
          9 20 3 9 2.</_></rects>
      <tilted>0</tilted></_>
    <_>
      <rects>
        <_>
          6 18 2 11 -1.</_>
        <_>
          7 18 1 11 2.</_></rects>
      <tilted>0</tilted></_>
    <_>
      <rects>
        <_>
          8 0 2 3 -1.</_>
        <_>
          9 0 1 3 2.</_></rects>
      <tilted>0</tilted></_>
    <_>
      <rects>
        <_>
          8 9 2 7 -1.</_>
        <_>
          9 9 1 7 2.</_></rects>
      <tilted>0</tilted></_>
    <_>
      <rects>
        <_>
          8 15 4 4 -1.</_>
        <_>
          10 15 2 4 2.</_></rects>
      <tilted>0</tilted></_>
    <_>
      <rects>
        <_>
          8 17 17 3 -1.</_>
        <_>
          8 18 17 1 3.</_></rects>
      <tilted>0</tilted></_>
    <_>
      <rects>
        <_>
          8 19 26 6 -1.</_>
        <_>
          8 21 26 2 3.</_></rects>
      <tilted>0</tilted></_>
    <_>
      <rects>
        <_>
          8 29 16 6 -1.</_>
        <_>
          8 31 16 2 3.</_></rects>
      <tilted>0</tilted></_>
    <_>
      <rects>
        <_>
          9 12 9 19 -1.</_>
        <_>
          12 12 3 19 3.</_></rects>
      <tilted>0</tilted></_>
    <_>
      <rects>
        <_>
          9 30 2 3 -1.</_>
        <_>
          9 31 2 1 3.</_></rects>
      <tilted>0</tilted></_>
    <_>
      <rects>
        <_>
          9 34 14 6 -1.</_>
        <_>
          9 34 7 3 2.</_>
        <_>
          16 37 7 3 2.</_></rects>
      <tilted>0</tilted></_>
    <_>
      <rects>
        <_>
          9 47 12 2 -1.</_>
        <_>
          9 47 6 1 2.</_>
        <_>
          15 48 6 1 2.</_></rects>
      <tilted>0</tilted></_>
    <_>
      <rects>
        <_>
          11 12 32 24 -1.</_>
        <_>
          11 24 32 12 2.</_></rects>
      <tilted>0</tilted></_>
    <_>
      <rects>
        <_>
          11 32 35 3 -1.</_>
        <_>
          11 33 35 1 3.</_></rects>
      <tilted>0</tilted></_>
    <_>
      <rects>
        <_>
          12 9 14 4 -1.</_>
        <_>
          12 9 7 2 2.</_>
        <_>
          19 11 7 2 2.</_></rects>
      <tilted>0</tilted></_>
    <_>
      <rects>
        <_>
          12 14 6 8 -1.</_>
        <_>
          14 14 2 8 3.</_></rects>
      <tilted>0</tilted></_>
    <_>
      <rects>
        <_>
          12 16 20 2 -1.</_>
        <_>
          12 17 20 1 2.</_></rects>
      <tilted>0</tilted></_>
    <_>
      <rects>
        <_>
          12 46 36 1 -1.</_>
        <_>
          24 46 12 1 3.</_></rects>
      <tilted>0</tilted></_>
    <_>
      <rects>
        <_>
          13 0 12 30 -1.</_>
        <_>
          13 0 6 15 2.</_>
        <_>
          19 15 6 15 2.</_></rects>
      <tilted>0</tilted></_>
    <_>
      <rects>
        <_>
          13 2 23 33 -1.</_>
        <_>
          13 13 23 11 3.</_></rects>
      <tilted>0</tilted></_>
    <_>
      <rects>
        <_>
          13 16 21 2 -1.</_>
        <_>
          13 17 21 1 2.</_></rects>
      <tilted>0</tilted></_>
    <_>
      <rects>
        <_>
          14 6 18 10 -1.</_>
        <_>
          14 11 18 5 2.</_></rects>
      <tilted>0</tilted></_>
    <_>
      <rects>
        <_>
          14 43 3 7 -1.</_>
        <_>
          15 43 1 7 3.</_></rects>
      <tilted>0</tilted></_>
    <_>
      <rects>
        <_>
          15 2 3 3 -1.</_>
        <_>
          15 3 3 1 3.</_></rects>
      <tilted>0</tilted></_>
    <_>
      <rects>
        <_>
          15 11 18 10 -1.</_>
        <_>
          15 11 9 5 2.</_>
        <_>
          24 16 9 5 2.</_></rects>
      <tilted>0</tilted></_>
    <_>
      <rects>
        <_>
          15 12 9 2 -1.</_>
        <_>
          15 13 9 1 2.</_></rects>
      <tilted>0</tilted></_>
    <_>
      <rects>
        <_>
          15 15 8 15 -1.</_>
        <_>
          15 20 8 5 3.</_></rects>
      <tilted>0</tilted></_>
    <_>
      <rects>
        <_>
          15 16 13 2 -1.</_>
        <_>
          15 17 13 1 2.</_></rects>
      <tilted>0</tilted></_>
    <_>
      <rects>
        <_>
          15 19 15 7 -1.</_>
        <_>
          20 19 5 7 3.</_></rects>
      <tilted>0</tilted></_>
    <_>
      <rects>
        <_>
          15 21 22 3 -1.</_>
        <_>
          26 21 11 3 2.</_></rects>
      <tilted>0</tilted></_>
    <_>
      <rects>
        <_>
          16 37 12 4 -1.</_>
        <_>
          16 37 6 2 2.</_>
        <_>
          22 39 6 2 2.</_></rects>
      <tilted>0</tilted></_>
    <_>
      <rects>
        <_>
          17 38 4 3 -1.</_>
        <_>
          17 39 4 1 3.</_></rects>
      <tilted>0</tilted></_>
    <_>
      <rects>
        <_>
          18 7 11 12 -1.</_>
        <_>
          18 11 11 4 3.</_></rects>
      <tilted>0</tilted></_>
    <_>
      <rects>
        <_>
          18 18 10 14 -1.</_>
        <_>
          18 25 10 7 2.</_></rects>
      <tilted>0</tilted></_>
    <_>
      <rects>
        <_>
          18 21 6 4 -1.</_>
        <_>
          20 21 2 4 3.</_></rects>
      <tilted>0</tilted></_>
    <_>
      <rects>
        <_>
          18 26 8 2 -1.</_>
        <_>
          18 26 4 1 2.</_>
        <_>
          22 27 4 1 2.</_></rects>
      <tilted>0</tilted></_>
    <_>
      <rects>
        <_>
          18 26 6 3 -1.</_>
        <_>
          18 27 6 1 3.</_></rects>
      <tilted>0</tilted></_>
    <_>
      <rects>
        <_>
          19 7 5 15 -1.</_>
        <_>
          19 12 5 5 3.</_></rects>
      <tilted>0</tilted></_>
    <_>
      <rects>
        <_>
          19 11 22 4 -1.</_>
        <_>
          19 11 11 2 2.</_>
        <_>
          30 13 11 2 2.</_></rects>
      <tilted>0</tilted></_>
    <_>
      <rects>
        <_>
          20 8 7 12 -1.</_>
        <_>
          20 12 7 4 3.</_></rects>
      <tilted>0</tilted></_>
    <_>
      <rects>
        <_>
          20 8 10 15 -1.</_>
        <_>
          20 13 10 5 3.</_></rects>
      <tilted>0</tilted></_>
    <_>
      <rects>
        <_>
          20 13 6 24 -1.</_>
        <_>
          20 13 3 12 2.</_>
        <_>
          23 25 3 12 2.</_></rects>
      <tilted>0</tilted></_>
    <_>
      <rects>
        <_>
          20 16 3 4 -1.</_>
        <_>
          20 18 3 2 2.</_></rects>
      <tilted>0</tilted></_>
    <_>
      <rects>
        <_>
          20 47 2 2 -1.</_>
        <_>
          20 47 1 1 2.</_>
        <_>
          21 48 1 1 2.</_></rects>
      <tilted>0</tilted></_>
    <_>
      <rects>
        <_>
          20 48 25 2 -1.</_>
        <_>
          20 49 25 1 2.</_></rects>
      <tilted>0</tilted></_>
    <_>
      <rects>
        <_>
          21 4 26 2 -1.</_>
        <_>
          21 4 13 1 2.</_>
        <_>
          34 5 13 1 2.</_></rects>
      <tilted>0</tilted></_>
    <_>
      <rects>
        <_>
          21 11 4 24 -1.</_>
        <_>
          21 11 2 12 2.</_>
        <_>
          23 23 2 12 2.</_></rects>
      <tilted>0</tilted></_>
    <_>
      <rects>
        <_>
          21 18 4 9 -1.</_>
        <_>
          21 21 4 3 3.</_></rects>
      <tilted>0</tilted></_>
    <_>
      <rects>
        <_>
          21 29 16 2 -1.</_>
        <_>
          21 29 8 1 2.</_>
        <_>
          29 30 8 1 2.</_></rects>
      <tilted>0</tilted></_>
    <_>
      <rects>
        <_>
          22 9 1 6 -1.</_>
        <_>
          22 11 1 2 3.</_></rects>
      <tilted>0</tilted></_>
    <_>
      <rects>
        <_>
          23 2 9 2 -1.</_>
        <_>
          26 2 3 2 3.</_></rects>
      <tilted>0</tilted></_>
    <_>
      <rects>
        <_>
          23 8 4 12 -1.</_>
        <_>
          23 12 4 4 3.</_></rects>
      <tilted>0</tilted></_>
    <_>
      <rects>
        <_>
          23 11 10 2 -1.</_>
        <_>
          23 11 5 1 2.</_>
        <_>
          28 12 5 1 2.</_></rects>
      <tilted>0</tilted></_>
    <_>
      <rects>
        <_>
          23 15 3 3 -1.</_>
        <_>
          23 16 3 1 3.</_></rects>
      <tilted>0</tilted></_>
    <_>
      <rects>
        <_>
          23 21 2 4 -1.</_>
        <_>
          23 23 2 2 2.</_></rects>
      <tilted>0</tilted></_>
    <_>
      <rects>
        <_>
          23 23 4 3 -1.</_>
        <_>
          23 24 4 1 3.</_></rects>
      <tilted>0</tilted></_>
    <_>
      <rects>
        <_>
          23 24 5 2 -1.</_>
        <_>
          23 25 5 1 2.</_></rects>
      <tilted>0</tilted></_>
    <_>
      <rects>
        <_>
          24 0 3 6 -1.</_>
        <_>
          25 0 1 6 3.</_></rects>
      <tilted>0</tilted></_>
    <_>
      <rects>
        <_>
          24 2 12 4 -1.</_>
        <_>
          28 2 4 4 3.</_></rects>
      <tilted>0</tilted></_>
    <_>
      <rects>
        <_>
          24 3 3 24 -1.</_>
        <_>
          24 11 3 8 3.</_></rects>
      <tilted>0</tilted></_>
    <_>
      <rects>
        <_>
          24 5 6 1 -1.</_>
        <_>
          26 5 2 1 3.</_></rects>
      <tilted>0</tilted></_>
    <_>
      <rects>
        <_>
          24 6 1 10 -1.</_>
        <_>
          24 11 1 5 2.</_></rects>
      <tilted>0</tilted></_>
    <_>
      <rects>
        <_>
          24 8 6 6 -1.</_>
        <_>
          24 10 6 2 3.</_></rects>
      <tilted>0</tilted></_>
    <_>
      <rects>
        <_>
          24 21 1 6 -1.</_>
        <_>
          24 23 1 2 3.</_></rects>
      <tilted>0</tilted></_>
    <_>
      <rects>
        <_>
          24 24 2 2 -1.</_>
        <_>
          24 24 1 1 2.</_>
        <_>
          25 25 1 1 2.</_></rects>
      <tilted>0</tilted></_>
    <_>
      <rects>
        <_>
          24 26 2 2 -1.</_>
        <_>
          24 26 1 1 2.</_>
        <_>
          25 27 1 1 2.</_></rects>
      <tilted>0</tilted></_>
    <_>
      <rects>
        <_>
          24 29 3 2 -1.</_>
        <_>
          24 30 3 1 2.</_></rects>
      <tilted>0</tilted></_>
    <_>
      <rects>
        <_>
          25 18 15 10 -1.</_>
        <_>
          30 18 5 10 3.</_></rects>
      <tilted>0</tilted></_>
    <_>
      <rects>
        <_>
          25 29 6 5 -1.</_>
        <_>
          27 29 2 5 3.</_></rects>
      <tilted>0</tilted></_>
    <_>
      <rects>
        <_>
          25 31 18 18 -1.</_>
        <_>
          25 37 18 6 3.</_></rects>
      <tilted>0</tilted></_>
    <_>
      <rects>
        <_>
          25 41 25 6 -1.</_>
        <_>
          25 43 25 2 3.</_></rects>
      <tilted>0</tilted></_>
    <_>
      <rects>
        <_>
          26 1 6 31 -1.</_>
        <_>
          29 1 3 31 2.</_></rects>
      <tilted>0</tilted></_>
    <_>
      <rects>
        <_>
          26 10 5 4 -1.</_>
        <_>
          26 12 5 2 2.</_></rects>
      <tilted>0</tilted></_>
    <_>
      <rects>
        <_>
          26 14 7 3 -1.</_>
        <_>
          26 15 7 1 3.</_></rects>
      <tilted>0</tilted></_>
    <_>
      <rects>
        <_>
          26 22 1 6 -1.</_>
        <_>
          26 24 1 2 3.</_></rects>
      <tilted>0</tilted></_>
    <_>
      <rects>
        <_>
          26 26 4 8 -1.</_>
        <_>
          26 26 2 4 2.</_>
        <_>
          28 30 2 4 2.</_></rects>
      <tilted>0</tilted></_>
    <_>
      <rects>
        <_>
          27 16 6 4 -1.</_>
        <_>
          29 16 2 4 3.</_></rects>
      <tilted>0</tilted></_>
    <_>
      <rects>
        <_>
          27 19 12 13 -1.</_>
        <_>
          31 19 4 13 3.</_></rects>
      <tilted>0</tilted></_>
    <_>
      <rects>
        <_>
          27 31 3 6 -1.</_>
        <_>
          28 31 1 6 3.</_></rects>
      <tilted>0</tilted></_>
    <_>
      <rects>
        <_>
          28 0 6 10 -1.</_>
        <_>
          31 0 3 10 2.</_></rects>
      <tilted>0</tilted></_>
    <_>
      <rects>
        <_>
          28 1 3 2 -1.</_>
        <_>
          28 2 3 1 2.</_></rects>
      <tilted>0</tilted></_>
    <_>
      <rects>
        <_>
          28 7 2 18 -1.</_>
        <_>
          29 7 1 18 2.</_></rects>
      <tilted>0</tilted></_>
    <_>
      <rects>
        <_>
          28 12 14 26 -1.</_>
        <_>
          28 12 7 13 2.</_>
        <_>
          35 25 7 13 2.</_></rects>
      <tilted>0</tilted></_>
    <_>
      <rects>
        <_>
          28 16 1 2 -1.</_>
        <_>
          28 17 1 1 2.</_></rects>
      <tilted>0</tilted></_>
    <_>
      <rects>
        <_>
          28 16 2 3 -1.</_>
        <_>
          28 17 2 1 3.</_></rects>
      <tilted>0</tilted></_>
    <_>
      <rects>
        <_>
          28 46 2 4 -1.</_>
        <_>
          29 46 1 4 2.</_></rects>
      <tilted>0</tilted></_>
    <_>
      <rects>
        <_>
          29 2 6 1 -1.</_>
        <_>
          32 2 3 1 2.</_></rects>
      <tilted>0</tilted></_>
    <_>
      <rects>
        <_>
          29 18 1 2 -1.</_>
        <_>
          29 19 1 1 2.</_></rects>
      <tilted>0</tilted></_>
    <_>
      <rects>
        <_>
          29 18 2 2 -1.</_>
        <_>
          30 18 1 2 2.</_></rects>
      <tilted>0</tilted></_>
    <_>
      <rects>
        <_>
          30 4 9 1 -1.</_>
        <_>
          33 4 3 1 3.</_></rects>
      <tilted>0</tilted></_>
    <_>
      <rects>
        <_>
          30 4 5 3 -1.</_>
        <_>
          30 5 5 1 3.</_></rects>
      <tilted>0</tilted></_>
    <_>
      <rects>
        <_>
          31 13 18 4 -1.</_>
        <_>
          37 13 6 4 3.</_></rects>
      <tilted>0</tilted></_>
    <_>
      <rects>
        <_>
          31 24 6 1 -1.</_>
        <_>
          34 24 3 1 2.</_></rects>
      <tilted>0</tilted></_>
    <_>
      <rects>
        <_>
          33 30 8 6 -1.</_>
        <_>
          33 32 8 2 3.</_></rects>
      <tilted>0</tilted></_>
    <_>
      <rects>
        <_>
          34 19 3 1 -1.</_>
        <_>
          35 19 1 1 3.</_></rects>
      <tilted>0</tilted></_>
    <_>
      <rects>
        <_>
          36 1 6 18 -1.</_>
        <_>
          36 1 3 9 2.</_>
        <_>
          39 10 3 9 2.</_></rects>
      <tilted>0</tilted></_>
    <_>
      <rects>
        <_>
          36 2 9 3 -1.</_>
        <_>
          36 3 9 1 3.</_></rects>
      <tilted>0</tilted></_>
    <_>
      <rects>
        <_>
          36 14 3 2 -1.</_>
        <_>
          36 15 3 1 2.</_></rects>
      <tilted>0</tilted></_>
    <_>
      <rects>
        <_>
          36 17 12 3 -1.</_>
        <_>
          40 17 4 3 3.</_></rects>
      <tilted>0</tilted></_>
    <_>
      <rects>
        <_>
          37 2 4 3 -1.</_>
        <_>
          39 2 2 3 2.</_></rects>
      <tilted>0</tilted></_>
    <_>
      <rects>
        <_>
          37 15 12 9 -1.</_>
        <_>
          41 15 4 9 3.</_></rects>
      <tilted>0</tilted></_>
    <_>
      <rects>
        <_>
          37 17 10 15 -1.</_>
        <_>
          42 17 5 15 2.</_></rects>
      <tilted>0</tilted></_>
    <_>
      <rects>
        <_>
          37 26 10 2 -1.</_>
        <_>
          37 26 5 1 2.</_>
        <_>
          42 27 5 1 2.</_></rects>
      <tilted>0</tilted></_>
    <_>
      <rects>
        <_>
          37 33 4 1 -1.</_>
        <_>
          39 33 2 1 2.</_></rects>
      <tilted>0</tilted></_>
    <_>
      <rects>
        <_>
          38 13 4 7 -1.</_>
        <_>
          40 13 2 7 2.</_></rects>
      <tilted>0</tilted></_>
    <_>
      <rects>
        <_>
          38 14 10 22 -1.</_>
        <_>
          38 14 5 11 2.</_>
        <_>
          43 25 5 11 2.</_></rects>
      <tilted>0</tilted></_>
    <_>
      <rects>
        <_>
          38 21 10 8 -1.</_>
        <_>
          38 21 5 4 2.</_>
        <_>
          43 25 5 4 2.</_></rects>
      <tilted>0</tilted></_>
    <_>
      <rects>
        <_>
          39 15 8 4 -1.</_>
        <_>
          39 15 4 2 2.</_>
        <_>
          43 17 4 2 2.</_></rects>
      <tilted>0</tilted></_>
    <_>
      <rects>
        <_>
          39 20 1 2 -1.</_>
        <_>
          39 21 1 1 2.</_></rects>
      <tilted>0</tilted></_>
    <_>
      <rects>
        <_>
          39 25 8 4 -1.</_>
        <_>
          39 25 4 2 2.</_>
        <_>
          43 27 4 2 2.</_></rects>
      <tilted>0</tilted></_>
    <_>
      <rects>
        <_>
          40 20 6 3 -1.</_>
        <_>
          42 20 2 3 3.</_></rects>
      <tilted>0</tilted></_>
    <_>
      <rects>
        <_>
          41 2 4 1 -1.</_>
        <_>
          43 2 2 1 2.</_></rects>
      <tilted>0</tilted></_>
    <_>
      <rects>
        <_>
          42 21 6 14 -1.</_>
        <_>
          42 21 3 7 2.</_>
        <_>
          45 28 3 7 2.</_></rects>
      <tilted>0</tilted></_>
    <_>
      <rects>
        <_>
          43 12 2 8 -1.</_>
        <_>
          43 12 1 4 2.</_>
        <_>
          44 16 1 4 2.</_></rects>
      <tilted>0</tilted></_>
    <_>
      <rects>
        <_>
          43 13 4 36 -1.</_>
        <_>
          45 13 2 36 2.</_></rects>
      <tilted>0</tilted></_>
    <_>
      <rects>
        <_>
          44 2 6 26 -1.</_>
        <_>
          44 2 3 13 2.</_>
        <_>
          47 15 3 13 2.</_></rects>
      <tilted>0</tilted></_>
    <_>
      <rects>
        <_>
          44 22 6 6 -1.</_>
        <_>
          47 22 3 6 2.</_></rects>
      <tilted>0</tilted></_>
    <_>
      <rects>
        <_>
          46 9 3 3 -1.</_>
        <_>
          46 10 3 1 3.</_></rects>
      <tilted>0</tilted></_>
    <_>
      <rects>
        <_>
          48 7 2 2 -1.</_>
        <_>
          48 8 2 1 2.</_></rects>
      <tilted>0</tilted></_>
    <_>
      <rects>
        <_>
          49 6 1 18 -1.</_>
        <_>
          49 15 1 9 2.</_></rects>
      <tilted>0</tilted></_></features></cascade>
</opencv_storage>
